digraph Tree {
node [shape=box, style="filled, rounded", color="black", fontname="helvetica"] ;
edge [fontname="helvetica"] ;
0 [label="sepal length (cm) <= 5.45\ngini = 0.64\nsamples = 95\nvalue = [40, 68, 42]\nclass = versicolor", fillcolor="#cff9e1"] ;
1 [label="petal width (cm) <= 0.8\ngini = 0.34\nsamples = 32\nvalue = [39, 11, 0]\nclass = setosa", fillcolor="#eca571"] ;
0 -> 1 [labeldistance=2.5, labelangle=45, headlabel="True"] ;
2 [label="gini = 0.0\nsamples = 27\nvalue = [39, 0, 0]\nclass = setosa", fillcolor="#e58139"] ;
1 -> 2 ;
3 [label="gini = 0.0\nsamples = 5\nvalue = [0, 11, 0]\nclass = versicolor", fillcolor="#39e581"] ;
1 -> 3 ;
4 [label="petal length (cm) <= 4.75\ngini = 0.5\nsamples = 63\nvalue = [1, 57, 42]\nclass = versicolor", fillcolor="#ccf8de"] ;
0 -> 4 [labeldistance=2.5, labelangle=-45, headlabel="False"] ;
5 [label="petal length (cm) <= 2.5\ngini = 0.04\nsamples = 30\nvalue = [1, 52, 0]\nclass = versicolor", fillcolor="#3de683"] ;
4 -> 5 ;
6 [label="gini = 0.0\nsamples = 1\nvalue = [1, 0, 0]\nclass = setosa", fillcolor="#e58139"] ;
5 -> 6 ;
7 [label="gini = 0.0\nsamples = 29\nvalue = [0, 52, 0]\nclass = versicolor", fillcolor="#39e581"] ;
5 -> 7 ;
8 [label="sepal length (cm) <= 6.75\ngini = 0.19\nsamples = 33\nvalue = [0, 5, 42]\nclass = virginica", fillcolor="#9051e8"] ;
4 -> 8 ;
9 [label="petal length (cm) <= 5.05\ngini = 0.29\nsamples = 20\nvalue = [0, 5, 24]\nclass = virginica", fillcolor="#9b62ea"] ;
8 -> 9 ;
10 [label="sepal length (cm) <= 6.5\ngini = 0.48\nsamples = 7\nvalue = [0, 4, 6]\nclass = virginica", fillcolor="#d5bdf6"] ;
9 -> 10 ;
11 [label="sepal length (cm) <= 5.95\ngini = 0.38\nsamples = 6\nvalue = [0, 2, 6]\nclass = virginica", fillcolor="#ab7bee"] ;
10 -> 11 ;
12 [label="gini = 0.0\nsamples = 1\nvalue = [0, 1, 0]\nclass = versicolor", fillcolor="#39e581"] ;
11 -> 12 ;
13 [label="petal width (cm) <= 1.65\ngini = 0.24\nsamples = 5\nvalue = [0, 1, 6]\nclass = virginica", fillcolor="#965ae9"] ;
11 -> 13 ;
14 [label="sepal length (cm) <= 6.15\ngini = 0.5\nsamples = 2\nvalue = [0, 1, 1]\nclass = versicolor", fillcolor="#ffffff"] ;
13 -> 14 ;
15 [label="gini = 0.0\nsamples = 1\nvalue = [0, 0, 1]\nclass = virginica", fillcolor="#8139e5"] ;
14 -> 15 ;
16 [label="gini = 0.0\nsamples = 1\nvalue = [0, 1, 0]\nclass = versicolor", fillcolor="#39e581"] ;
14 -> 16 ;
17 [label="gini = 0.0\nsamples = 3\nvalue = [0, 0, 5]\nclass = virginica", fillcolor="#8139e5"] ;
13 -> 17 ;
18 [label="gini = 0.0\nsamples = 1\nvalue = [0, 2, 0]\nclass = versicolor", fillcolor="#39e581"] ;
10 -> 18 ;
19 [label="petal width (cm) <= 1.7\ngini = 0.1\nsamples = 13\nvalue = [0, 1, 18]\nclass = virginica", fillcolor="#8844e6"] ;
9 -> 19 ;
20 [label="petal length (cm) <= 5.35\ngini = 0.5\nsamples = 2\nvalue = [0, 1, 1]\nclass = versicolor", fillcolor="#ffffff"] ;
19 -> 20 ;
21 [label="gini = 0.0\nsamples = 1\nvalue = [0, 1, 0]\nclass = versicolor", fillcolor="#39e581"] ;
20 -> 21 ;
22 [label="gini = 0.0\nsamples = 1\nvalue = [0, 0, 1]\nclass = virginica", fillcolor="#8139e5"] ;
20 -> 22 ;
23 [label="gini = 0.0\nsamples = 11\nvalue = [0, 0, 17]\nclass = virginica", fillcolor="#8139e5"] ;
19 -> 23 ;
24 [label="gini = 0.0\nsamples = 13\nvalue = [0, 0, 18]\nclass = virginica", fillcolor="#8139e5"] ;
8 -> 24 ;
}